gru/gru_cell/kernel:0
(1, 240)
[[-0.04186395  0.15964548 -0.0324153   0.11083516  0.00771101  0.17454371
   0.10527986  0.08813363 -0.06890294  0.01539622  0.1591777  -0.14485769
   0.12889503  0.16133025  0.16719733 -0.13585837  0.13248065 -0.11583243
   0.08540226  0.11916005  0.09337532 -0.07227847 -0.00641494 -0.05170355
  -0.06496273  0.09696931  0.0593403  -0.1171582   0.02596081  0.0249348
  -0.04030722  0.11850233 -0.09589019  0.11102067 -0.08012945  0.00034188
   0.11907443  0.05334696  0.07865182  0.11963437 -0.15001677  0.17657633
   0.15725191 -0.0293448   0.07420824 -0.152935    0.14832193  0.12943487
  -0.00999779  0.06557538  0.19278698  0.10031691  0.07843653 -0.14354996
   0.18546772 -0.08004435  0.14498176 -0.04432179  0.10373637 -0.1396691
  -0.07593194 -0.07487008  0.0805248   0.03244704  0.00311019 -0.05373591
   0.00386572 -0.06596281  0.08698852 -0.00929687  0.07786714  0.10200657
  -0.12012026  0.08455196  0.10815971 -0.07234966  0.00355989  0.16651027
  -0.00371156 -0.00893032 -0.0881338  -0.17015593 -0.04039587 -0.05214685
  -0.02838263 -0.09730316 -0.14480707 -0.15352826 -0.01544129  0.15264812
   0.07496943 -0.17493989 -0.17180078  0.05373251  0.08983523  0.12060143
   0.08665935 -0.16191503 -0.11422192  0.10849836 -0.10748804 -0.04751766
   0.1549557  -0.03884128 -0.16242677 -0.13628174 -0.1520948  -0.05876014
  -0.04356927  0.07949003 -0.02344642 -0.1190686  -0.07758627 -0.00189764
  -0.17038874 -0.06237311  0.14310597 -0.14297394  0.12739798 -0.09583337
  -0.02824648 -0.08767489  0.11507284 -0.13428499 -0.17735602 -0.12562032
  -0.09515613  0.13667883  0.11347671  0.13528123  0.09026979  0.06169371
   0.02789152 -0.05605735 -0.02790602  0.08650949  0.12513869 -0.03322322
  -0.13753219 -0.01707276 -0.00482977 -0.08276287  0.04010815  0.03189502
   0.08199766 -0.01547831  0.05385721 -0.114089   -0.01017626 -0.12225892
  -0.00700691 -0.17321682 -0.14964402 -0.13878429  0.07095528  0.13635084
  -0.07520963 -0.03541188 -0.13922     0.07339694  0.0443348   0.11529896
  -0.01093567  0.04071175 -0.11282476 -0.13142098 -0.12493691  0.10608618
  -0.09591776  0.1381464  -0.13982384  0.07472206 -0.12171328 -0.08159868
  -0.13234487 -0.03886211  0.02566424  0.13412662 -0.06169493  0.07235284
   0.02901164 -0.15370758  0.04331619  0.00074234 -0.14500123  0.08230252
   0.02321189 -0.00925483 -0.09404892 -0.0455884  -0.05401007 -0.13581501
  -0.02941077  0.14333828 -0.15240224  0.13635018 -0.00338246  0.04309784
  -0.10839214 -0.02109011  0.01291945 -0.09514748 -0.14256145 -0.14228788
   0.12987141 -0.01162346 -0.00094928  0.00607123 -0.08269532  0.11388281
  -0.1441945   0.12775823 -0.13943651  0.00147978 -0.12226485  0.00399337
  -0.00830382 -0.0603407   0.11242629 -0.00995478  0.04096316  0.00670458
   0.13094324  0.0750042  -0.13356604  0.06486772 -0.09570189  0.02479311
   0.10018815  0.09187822 -0.07640437 -0.08193005 -0.08104625 -0.00173185
   0.04847522 -0.14610873  0.12904938  0.11121926  0.06351361  0.03505913]]
gru/gru_cell/recurrent_kernel:0
(80, 240)
[[ 0.03224348  0.06529097  0.06791017 ... -0.01126078 -0.02727638
  -0.03845813]
 [-0.05112266  0.01595562 -0.08698359 ... -0.06144262 -0.0076947
   0.00612226]
 [ 0.02489278  0.03120026  0.04116153 ...  0.123118   -0.03454268
  -0.06649552]
 ...
 [-0.05383855  0.01367328  0.03734049 ...  0.03150113  0.16623157
  -0.00588021]
 [-0.01305621  0.13614497 -0.0278518  ... -0.00062695  0.0232347
   0.0566694 ]
 [ 0.08067395 -0.01007464 -0.09341027 ...  0.02750646  0.05276181
  -0.07903183]]
gru/gru_cell/bias:0
(2, 240)
[[ 6.43641055e-02  2.77581550e-02 -4.12233965e-03  2.99568474e-03
   4.36057039e-02  7.06800446e-02  5.03539629e-02  4.69494164e-02
   6.28488585e-02  5.97454347e-02  2.16615945e-02 -4.18459967e-05
   5.80776334e-02  3.09359487e-02  6.22155666e-02  1.63935293e-02
  -3.29700764e-03  3.38745154e-02  8.09467118e-03  4.81995754e-02
   1.77459780e-03  5.18877693e-02  4.43681777e-02 -3.74510232e-03
   5.07377014e-02  4.10200693e-02  1.07035013e-02  3.97359878e-02
   4.32373956e-02  1.26550989e-02  1.29636098e-02  6.72907531e-02
  -1.06067872e-02  7.08649307e-02  6.51974231e-02  4.67638373e-02
   2.97275372e-02 -2.06090347e-03  2.16617659e-02  5.86624853e-02
  -2.44155433e-03  4.77015525e-02  5.93942180e-02  5.17425947e-02
   6.10773936e-02 -2.29723286e-03  3.90482247e-02  2.22931281e-02
   4.24696394e-04  6.34192601e-02  5.21324836e-02  4.43874747e-02
   4.68926877e-02 -5.24303271e-03  7.79945180e-02  7.89191946e-03
   1.69653213e-03  3.36412229e-02  5.58936670e-02  6.54656254e-03
   2.94220615e-02  2.43716687e-02  5.27711958e-02  2.07361747e-02
   5.76482192e-02  5.49212508e-02  6.62695915e-02 -2.97430484e-03
   4.94010635e-02  2.86597181e-02 -8.49896483e-03  3.54829058e-02
   3.37212235e-02 -5.55572985e-03  1.94710251e-02  6.49257824e-02
   6.65083751e-02  2.48075612e-02  4.15027030e-02  3.50557715e-02
  -9.53723211e-03 -1.57200638e-02 -2.99918707e-02 -1.52747631e-02
  -1.27991326e-02 -1.02351354e-02 -2.11248826e-02 -2.00293232e-02
  -1.97540689e-02 -5.83767798e-03 -2.52258056e-03 -2.63748541e-02
  -2.61899885e-02 -2.96923611e-02 -1.88947795e-03 -2.35339031e-02
  -1.75768621e-02 -1.61663722e-02 -8.88837874e-03 -3.46619799e-03
  -2.49063540e-02 -3.34813702e-03 -6.54175971e-03 -2.16957293e-02
  -1.62295960e-02 -1.40880607e-02 -2.62519773e-02 -5.72261494e-03
  -1.39513705e-02 -1.80685408e-02 -1.86235849e-02 -2.01759581e-02
  -1.30910017e-02 -1.93128139e-02 -3.22909653e-02 -2.20855176e-02
  -5.08809276e-03 -1.40032200e-02 -1.60681186e-04  2.31365161e-03
  -1.47194983e-02 -1.31862722e-02 -2.67052781e-02 -1.33881727e-02
  -3.02613992e-02 -2.09939363e-03  5.69397002e-04 -1.17908069e-03
  -1.39017673e-02 -7.43072806e-03 -2.37987097e-02 -9.09889396e-03
  -1.49329305e-02 -1.28773050e-02 -5.05827591e-02 -2.29794346e-02
  -9.35568474e-03 -2.70822598e-03 -2.57198550e-02 -4.44994075e-03
  -2.16927100e-02 -1.09910797e-02 -8.26500542e-03 -1.79301330e-03
  -8.23995937e-03 -2.14171074e-02 -1.25131775e-02 -1.38086090e-02
  -2.62537412e-02 -7.08950544e-03 -7.16243219e-03 -1.93777326e-02
  -1.23917172e-02 -2.32225303e-02 -2.13324502e-02 -1.05589135e-02
  -1.81624461e-02 -5.33290952e-03 -1.63577143e-02 -1.62363965e-02
  -2.65090656e-03 -8.43618158e-03 -1.07328244e-03 -4.44921711e-03
   8.64318945e-03  4.12212266e-03  3.65347508e-03 -6.99051516e-03
   4.33028862e-03 -5.27621899e-03  5.15334681e-03  2.26813019e-03
   3.20420950e-03  4.09519766e-03  5.87245217e-03  3.72517179e-03
  -1.95221568e-03 -9.33395047e-03  7.32126553e-03 -6.76186569e-03
  -6.91482006e-03  7.06794672e-03  1.91229396e-04  5.82652399e-04
   3.77910025e-03 -3.51939723e-03 -1.46478019e-03  1.12372183e-03
   3.56868608e-03  6.53378386e-03  4.81565623e-03  9.65552498e-03
  -1.60784286e-04 -6.99236197e-03  3.83515679e-03 -7.69205438e-03
   4.58213594e-03 -7.69483624e-03  1.09037599e-02  3.92272370e-04
  -2.96243513e-03  5.72801149e-03  9.97067988e-03  8.66245758e-03
  -4.15590312e-03  6.20942330e-04  6.13810495e-04 -1.24847773e-03
   6.52452046e-03 -7.62618659e-03  5.78121841e-03 -6.37514936e-03
   7.54293799e-03  7.71537307e-04  4.17583622e-03  3.99713544e-03
  -2.05129688e-03  8.03079549e-03 -5.97328786e-03  4.27769875e-04
  -2.58347508e-03  4.73315315e-03 -8.66945833e-03 -4.01382195e-03
   6.64528133e-03 -7.49349478e-04  1.18082426e-02 -7.44409859e-04
  -5.51113114e-03 -7.31162587e-03  7.32922461e-03  7.22978450e-03
   2.75438395e-03 -4.20134747e-03 -3.04581644e-03  7.39360508e-03
  -3.41912033e-03 -8.02520569e-03 -5.73871797e-03 -5.62903588e-04]
 [ 6.43641055e-02  2.77581550e-02 -4.12233965e-03  2.99568474e-03
   4.36057039e-02  7.06800446e-02  5.03539629e-02  4.69494164e-02
   6.28488585e-02  5.97454347e-02  2.16615945e-02 -4.18459967e-05
   5.80776334e-02  3.09359487e-02  6.22155666e-02  1.63935293e-02
  -3.29700764e-03  3.38745154e-02  8.09467118e-03  4.81995754e-02
   1.77459780e-03  5.18877693e-02  4.43681777e-02 -3.74510232e-03
   5.07377014e-02  4.10200693e-02  1.07035013e-02  3.97359878e-02
   4.32373956e-02  1.26550989e-02  1.29636098e-02  6.72907531e-02
  -1.06067872e-02  7.08649307e-02  6.51974231e-02  4.67638373e-02
   2.97275372e-02 -2.06090347e-03  2.16617659e-02  5.86624853e-02
  -2.44155433e-03  4.77015525e-02  5.93942180e-02  5.17425947e-02
   6.10773936e-02 -2.29723286e-03  3.90482247e-02  2.22931281e-02
   4.24696394e-04  6.34192601e-02  5.21324836e-02  4.43874747e-02
   4.68926877e-02 -5.24303271e-03  7.79945180e-02  7.89191946e-03
   1.69653213e-03  3.36412229e-02  5.58936670e-02  6.54656254e-03
   2.94220615e-02  2.43716687e-02  5.27711958e-02  2.07361747e-02
   5.76482192e-02  5.49212508e-02  6.62695915e-02 -2.97430484e-03
   4.94010635e-02  2.86597181e-02 -8.49896483e-03  3.54829058e-02
   3.37212235e-02 -5.55572985e-03  1.94710251e-02  6.49257824e-02
   6.65083751e-02  2.48075612e-02  4.15027030e-02  3.50557715e-02
  -9.53723211e-03 -1.57200638e-02 -2.99918707e-02 -1.52747631e-02
  -1.27991326e-02 -1.02351354e-02 -2.11248826e-02 -2.00293232e-02
  -1.97540689e-02 -5.83767798e-03 -2.52258056e-03 -2.63748541e-02
  -2.61899885e-02 -2.96923611e-02 -1.88947795e-03 -2.35339031e-02
  -1.75768621e-02 -1.61663722e-02 -8.88837874e-03 -3.46619799e-03
  -2.49063540e-02 -3.34813702e-03 -6.54175971e-03 -2.16957293e-02
  -1.62295960e-02 -1.40880607e-02 -2.62519773e-02 -5.72261494e-03
  -1.39513705e-02 -1.80685408e-02 -1.86235849e-02 -2.01759581e-02
  -1.30910017e-02 -1.93128139e-02 -3.22909653e-02 -2.20855176e-02
  -5.08809276e-03 -1.40032200e-02 -1.60681186e-04  2.31365161e-03
  -1.47194983e-02 -1.31862722e-02 -2.67052781e-02 -1.33881727e-02
  -3.02613992e-02 -2.09939363e-03  5.69397002e-04 -1.17908069e-03
  -1.39017673e-02 -7.43072806e-03 -2.37987097e-02 -9.09889396e-03
  -1.49329305e-02 -1.28773050e-02 -5.05827591e-02 -2.29794346e-02
  -9.35568474e-03 -2.70822598e-03 -2.57198550e-02 -4.44994075e-03
  -2.16927100e-02 -1.09910797e-02 -8.26500542e-03 -1.79301330e-03
  -8.23995937e-03 -2.14171074e-02 -1.25131775e-02 -1.38086090e-02
  -2.62537412e-02 -7.08950544e-03 -7.16243219e-03 -1.93777326e-02
  -1.23917172e-02 -2.32225303e-02 -2.13324502e-02 -1.05589135e-02
  -1.81624461e-02 -5.33290952e-03 -1.63577143e-02 -1.62363965e-02
  -2.78843194e-03 -8.43502954e-03 -1.16948388e-03 -4.42052027e-03
   8.53258930e-03  4.20535542e-03  3.71388649e-03 -7.02062203e-03
   4.34532249e-03 -5.06785605e-03  5.11418423e-03  2.15996383e-03
   3.18349013e-03  4.11983626e-03  5.75543195e-03  3.64413275e-03
  -1.98776228e-03 -9.29339603e-03  7.35355262e-03 -6.64955564e-03
  -6.88281097e-03  7.11419387e-03  2.27126089e-04  5.99152874e-04
   3.84380226e-03 -3.59038054e-03 -1.42336648e-03  1.08070462e-03
   3.60544329e-03  6.42243959e-03  4.81583690e-03  9.68927704e-03
  -1.35616734e-04 -6.97687641e-03  3.96069093e-03 -7.67906616e-03
   4.45340900e-03 -7.65031995e-03  1.07608996e-02  4.95483517e-04
  -3.05731664e-03  5.70542878e-03  9.78472736e-03  8.75210203e-03
  -4.30634711e-03  5.57817228e-04  6.69768546e-04 -1.09507865e-03
   6.49745762e-03 -7.52535835e-03  5.51706040e-03 -6.17933320e-03
   7.49255018e-03  8.85126065e-04  4.13215254e-03  3.99675407e-03
  -2.10097618e-03  7.98200909e-03 -5.93346450e-03  4.78129106e-04
  -2.56782793e-03  4.79716621e-03 -8.58570170e-03 -3.96858994e-03
   6.49074838e-03 -7.57351867e-04  1.17017953e-02 -5.82563109e-04
  -5.44343842e-03 -7.37275975e-03  7.27682700e-03  7.29404343e-03
   2.78078998e-03 -4.12719417e-03 -3.01849586e-03  7.17832474e-03
  -3.44707421e-03 -7.98564591e-03 -5.78455534e-03 -4.42809600e-04]]
gru_1/gru_cell_1/kernel:0
(80, 300)
[[-0.03163403  0.06047701 -0.07711316 ... -0.06804175 -0.07487082
  -0.11376292]
 [ 0.13885841 -0.03591742 -0.0867843  ... -0.06206463  0.05573876
  -0.03473152]
 [-0.07587259 -0.12243903  0.02623653 ... -0.01709483  0.05561571
   0.09875567]
 ...
 [-0.04820022 -0.0538116  -0.03816219 ... -0.0930003  -0.12945303
  -0.04279147]
 [-0.11817086  0.01102783 -0.0397619  ...  0.04187056  0.10834588
   0.10407781]
 [-0.10359104 -0.01580237  0.03856805 ...  0.07771331 -0.02162165
  -0.03893835]]
gru_1/gru_cell_1/recurrent_kernel:0
(100, 300)
[[ 0.03003367  0.0528414  -0.03544128 ... -0.01974274  0.09537157
   0.05221565]
 [ 0.01333571 -0.1165114  -0.05555482 ... -0.03503938  0.03790273
  -0.00143745]
 [ 0.02665142 -0.1306676  -0.02992829 ...  0.01975053  0.10662036
   0.03328817]
 ...
 [ 0.09425328 -0.00870272 -0.07308115 ... -0.00831228  0.01621242
  -0.0230966 ]
 [ 0.08657125  0.04714861  0.0295461  ... -0.11635072 -0.04945564
  -0.05322391]
 [ 0.09087569  0.01072053  0.03689406 ...  0.04786615 -0.01911774
  -0.03548576]]
gru_1/gru_cell_1/bias:0
(2, 300)
[[ 5.23459092e-02  3.99504229e-02  4.26401161e-02  2.96338485e-03
   5.11262752e-02  3.61047313e-02  3.01369000e-02  8.01234394e-02
   2.74565024e-03 -1.21309627e-02  6.59694746e-02 -3.35096614e-03
  -3.73890460e-03 -1.96747128e-02  8.63564089e-02  6.19697459e-02
   7.92504698e-02 -1.23454928e-02  2.62330882e-02 -1.08412402e-02
  -8.26334301e-03  5.33462055e-02  1.97522100e-02  4.17121314e-02
   1.97118986e-02  8.03525001e-02  2.44230703e-02 -1.98648986e-03
   1.49026457e-02 -5.31371497e-03  4.74281749e-03  5.14925048e-02
  -2.31378693e-02 -8.67190119e-03  1.65802781e-02 -5.75168012e-03
   5.49292564e-03  1.16216382e-02 -8.12179036e-03  6.12760745e-02
  -6.03164453e-03  5.06500602e-02 -4.72959504e-03  4.09046784e-02
   3.48592475e-02 -2.24251277e-03  3.91733907e-02  3.13352421e-02
   5.20868711e-02  9.22363400e-02 -7.48760393e-03  2.82325186e-02
  -9.26119369e-03  5.95702156e-02  1.01179099e-02  6.75890669e-02
   1.08646438e-03 -1.22762462e-02  1.27834333e-02  4.63978946e-02
   3.19503471e-02  1.28900716e-02  1.04374290e-02  6.46827221e-02
   2.22499762e-02  2.22960804e-02  2.22074687e-02  6.17080629e-02
  -3.21500306e-03  1.25541287e-02  8.13505650e-02  6.73613325e-03
   5.95491678e-02  5.38305603e-02  3.91153917e-02  4.05344255e-02
  -1.94838624e-02  4.51834798e-02  8.90083145e-03  2.63187122e-02
   1.21371299e-02  6.31553531e-02 -2.21657660e-03  7.15401322e-02
   2.76800599e-02  3.85582000e-02 -1.21182436e-03 -3.66760753e-02
   4.60470933e-03  1.14402287e-02  5.76187856e-03  4.65603769e-02
   1.60190500e-02  7.14218803e-03  4.27242741e-02  3.45267691e-02
   2.75010634e-02  2.96453647e-02 -1.47941643e-02  4.63629998e-02
  -2.79926993e-02 -5.34891058e-03 -5.98797947e-03 -1.15157748e-02
   5.11589518e-04 -2.17451639e-02 -1.21575510e-02 -5.11386571e-03
  -2.75225975e-02 -1.10239871e-02 -2.37107929e-02 -1.67361517e-02
  -4.49979082e-02 -1.24937482e-02 -1.44277513e-02 -1.40153188e-02
  -1.44868819e-02 -1.45245763e-02 -1.34984485e-03 -5.37170377e-03
  -1.55034577e-02 -2.64790580e-02 -3.41970287e-02 -7.80398771e-03
  -2.37147044e-02 -2.20997594e-02 -7.01087480e-03 -1.44127030e-02
  -1.27724186e-02 -2.19932012e-02 -3.91385378e-03 -5.31478692e-03
  -1.49315083e-02 -9.91749484e-03  1.05750551e-02 -1.11330152e-02
  -1.92882009e-02 -1.86132714e-02 -1.31520466e-03 -1.45976646e-02
  -1.93093326e-02 -1.82860624e-02 -1.17038665e-02 -5.50334249e-03
  -1.10935578e-02 -4.18765144e-03 -1.59436893e-02 -3.25883813e-02
  -2.79691387e-02 -4.51048231e-03 -7.43764685e-03 -2.10167095e-02
  -2.34858096e-02 -2.74365675e-03 -2.16998532e-02  2.75795162e-03
  -1.18885729e-02  1.17401434e-02 -3.22072096e-02 -2.64455844e-02
   8.39735381e-03 -9.87979956e-03 -1.96233746e-02 -2.38465667e-02
  -6.58465736e-03 -1.70142185e-02 -2.23023836e-02  1.01040467e-03
  -1.77171174e-02 -4.62686038e-03 -1.83772836e-02 -5.65448264e-03
  -2.27683913e-02 -8.69705062e-03 -2.53829304e-02 -1.59854311e-02
   1.21674151e-03 -1.34918522e-02 -3.78167583e-03 -3.52614559e-02
  -1.92713831e-02  6.70801848e-04 -1.72038637e-02 -2.45737098e-02
  -2.62713917e-02  1.62407977e-03 -2.27502752e-02  3.56022594e-03
  -3.67483194e-03 -5.82031393e-03 -1.28964484e-02 -2.05425103e-03
  -3.30793373e-02 -7.18428241e-03 -1.21903773e-02 -1.68368090e-02
  -9.59053822e-03  2.85740802e-03 -3.87745007e-04 -5.55287814e-03
   3.77387065e-03 -2.16372428e-03 -4.91668424e-03  5.71777346e-03
   7.63258105e-03  3.92349809e-03 -6.65524323e-03  2.41303374e-03
  -9.99177108e-04 -8.81908461e-03  6.88580284e-03 -4.71915212e-03
  -6.19587488e-03 -8.63741525e-03  2.91749020e-03 -5.70130814e-03
   2.42637587e-03 -2.64551095e-03  5.12902392e-03 -6.00005267e-03
   5.68773178e-03  4.09372244e-03  5.65251848e-03 -5.39709302e-03
  -7.15155574e-03 -2.20527616e-03 -1.00440951e-02 -1.69906567e-03
   2.11922009e-03 -8.04023258e-03 -2.70202663e-03 -7.95303751e-03
   1.36150792e-02 -5.66451112e-03  3.92871723e-03 -3.71666029e-05
  -2.87608849e-03  6.64581079e-03  4.37740609e-03  4.86248313e-03
   6.98353443e-03  1.81179750e-03  5.47580747e-03 -2.29262421e-03
  -7.42613524e-03 -1.08427173e-02 -7.92808458e-03  5.10910852e-03
   3.16588976e-03  7.07239844e-03 -9.23782773e-03 -5.22231404e-03
   5.54654468e-03  5.96543076e-03  9.30378586e-03 -2.79295049e-03
   1.01200968e-03  1.77322645e-02  6.95811305e-03 -1.43551198e-03
   5.03678061e-03  4.45187325e-03  1.54862017e-03  2.57637282e-03
  -4.00097808e-04 -6.13874011e-03  5.39445737e-03  3.02597159e-03
  -2.50871503e-03 -7.90174678e-03  1.91278371e-03  6.02387916e-03
  -3.76373297e-03 -1.01626851e-02  9.82150086e-04 -1.22030277e-03
   8.81385058e-03  4.80400072e-03 -2.97463057e-03  4.39462066e-03
   3.68000218e-03  3.80690815e-03 -1.29556260e-03 -2.08558654e-03
   7.29169091e-03 -7.83744920e-03  3.38958553e-03 -4.03247681e-03
  -8.31807684e-03 -4.78349207e-03 -6.63067447e-03 -3.47540365e-03
   5.40243415e-03 -5.74346026e-03 -8.10396578e-03  4.48897528e-03
  -2.22432963e-03  1.09266816e-02 -2.32668663e-03  3.69860651e-03]
 [ 5.23459092e-02  3.99504229e-02  4.26401161e-02  2.96338485e-03
   5.11262752e-02  3.61047313e-02  3.01369000e-02  8.01234394e-02
   2.74565024e-03 -1.21309627e-02  6.59694746e-02 -3.35096614e-03
  -3.73890460e-03 -1.96747128e-02  8.63564089e-02  6.19697459e-02
   7.92504698e-02 -1.23454928e-02  2.62330882e-02 -1.08412402e-02
  -8.26334301e-03  5.33462055e-02  1.97522100e-02  4.17121314e-02
   1.97118986e-02  8.03525001e-02  2.44230703e-02 -1.98648986e-03
   1.49026457e-02 -5.31371497e-03  4.74281749e-03  5.14925048e-02
  -2.31378693e-02 -8.67190119e-03  1.65802781e-02 -5.75168012e-03
   5.49292564e-03  1.16216382e-02 -8.12179036e-03  6.12760745e-02
  -6.03164453e-03  5.06500602e-02 -4.72959504e-03  4.09046784e-02
   3.48592475e-02 -2.24251277e-03  3.91733907e-02  3.13352421e-02
   5.20868711e-02  9.22363400e-02 -7.48760393e-03  2.82325186e-02
  -9.26119369e-03  5.95702156e-02  1.01179099e-02  6.75890669e-02
   1.08646438e-03 -1.22762462e-02  1.27834333e-02  4.63978946e-02
   3.19503471e-02  1.28900716e-02  1.04374290e-02  6.46827221e-02
   2.22499762e-02  2.22960804e-02  2.22074687e-02  6.17080629e-02
  -3.21500306e-03  1.25541287e-02  8.13505650e-02  6.73613325e-03
   5.95491678e-02  5.38305603e-02  3.91153917e-02  4.05344255e-02
  -1.94838624e-02  4.51834798e-02  8.90083145e-03  2.63187122e-02
   1.21371299e-02  6.31553531e-02 -2.21657660e-03  7.15401322e-02
   2.76800599e-02  3.85582000e-02 -1.21182436e-03 -3.66760753e-02
   4.60470933e-03  1.14402287e-02  5.76187856e-03  4.65603769e-02
   1.60190500e-02  7.14218803e-03  4.27242741e-02  3.45267691e-02
   2.75010634e-02  2.96453647e-02 -1.47941643e-02  4.63629998e-02
  -2.79926993e-02 -5.34891058e-03 -5.98797947e-03 -1.15157748e-02
   5.11589518e-04 -2.17451639e-02 -1.21575510e-02 -5.11386571e-03
  -2.75225975e-02 -1.10239871e-02 -2.37107929e-02 -1.67361517e-02
  -4.49979082e-02 -1.24937482e-02 -1.44277513e-02 -1.40153188e-02
  -1.44868819e-02 -1.45245763e-02 -1.34984485e-03 -5.37170377e-03
  -1.55034577e-02 -2.64790580e-02 -3.41970287e-02 -7.80398771e-03
  -2.37147044e-02 -2.20997594e-02 -7.01087480e-03 -1.44127030e-02
  -1.27724186e-02 -2.19932012e-02 -3.91385378e-03 -5.31478692e-03
  -1.49315083e-02 -9.91749484e-03  1.05750551e-02 -1.11330152e-02
  -1.92882009e-02 -1.86132714e-02 -1.31520466e-03 -1.45976646e-02
  -1.93093326e-02 -1.82860624e-02 -1.17038665e-02 -5.50334249e-03
  -1.10935578e-02 -4.18765144e-03 -1.59436893e-02 -3.25883813e-02
  -2.79691387e-02 -4.51048231e-03 -7.43764685e-03 -2.10167095e-02
  -2.34858096e-02 -2.74365675e-03 -2.16998532e-02  2.75795162e-03
  -1.18885729e-02  1.17401434e-02 -3.22072096e-02 -2.64455844e-02
   8.39735381e-03 -9.87979956e-03 -1.96233746e-02 -2.38465667e-02
  -6.58465736e-03 -1.70142185e-02 -2.23023836e-02  1.01040467e-03
  -1.77171174e-02 -4.62686038e-03 -1.83772836e-02 -5.65448264e-03
  -2.27683913e-02 -8.69705062e-03 -2.53829304e-02 -1.59854311e-02
   1.21674151e-03 -1.34918522e-02 -3.78167583e-03 -3.52614559e-02
  -1.92713831e-02  6.70801848e-04 -1.72038637e-02 -2.45737098e-02
  -2.62713917e-02  1.62407977e-03 -2.27502752e-02  3.56022594e-03
  -3.67483194e-03 -5.82031393e-03 -1.28964484e-02 -2.05425103e-03
  -3.30793373e-02 -7.18428241e-03 -1.21903773e-02 -1.68368090e-02
  -9.59053822e-03  2.85740802e-03 -3.87745007e-04 -5.55287814e-03
   3.75653594e-03 -2.10236269e-03 -4.95842611e-03  5.59866894e-03
   7.67880818e-03  3.98468086e-03 -6.68394705e-03  2.47199414e-03
  -9.40388825e-04 -8.78079236e-03  6.79411832e-03 -4.73967986e-03
  -6.01248350e-03 -8.52758251e-03  2.94389878e-03 -5.61584113e-03
   2.43235799e-03 -2.65864516e-03  5.03679272e-03 -6.01630844e-03
   5.65200625e-03  4.02132375e-03  5.66202402e-03 -5.29367570e-03
  -7.07126549e-03 -2.13090912e-03 -9.99716390e-03 -1.70289597e-03
   2.12216703e-03 -7.96465855e-03 -2.65686191e-03 -7.93656986e-03
   1.34707876e-02 -5.66091901e-03  3.87909706e-03  1.02358408e-05
  -2.84259510e-03  6.69480488e-03  4.29993076e-03  4.87160729e-03
   7.00987130e-03  1.93370820e-03  5.46893524e-03 -2.25999253e-03
  -7.40900030e-03 -1.07759899e-02 -7.84067344e-03  5.07451873e-03
   3.14784446e-03  6.99755922e-03 -9.25018918e-03 -5.19298529e-03
   5.46273310e-03  5.87183889e-03  9.32554062e-03 -2.80524255e-03
   1.02810469e-03  1.77014638e-02  6.89922785e-03 -1.48989714e-03
   5.05342893e-03  4.38331626e-03  1.59286987e-03  2.64205853e-03
  -4.75385721e-04 -6.19465206e-03  5.39502781e-03  3.00063146e-03
  -2.44723633e-03 -7.91005325e-03  1.83539139e-03  5.93789574e-03
  -3.79820936e-03 -1.00608906e-02  1.03062263e-03 -1.23718427e-03
   8.77784286e-03  4.85278992e-03 -3.02531873e-03  4.28455556e-03
   3.58899729e-03  3.82562913e-03 -1.30996271e-03 -2.03708233e-03
   7.24465260e-03 -7.81233842e-03  3.24679818e-03 -4.00472805e-03
  -8.32676329e-03 -4.70990920e-03 -6.55317120e-03 -3.43891350e-03
   5.35905454e-03 -5.67429932e-03 -8.07539932e-03  4.42854315e-03
  -2.22215988e-03  1.07993791e-02 -2.31250562e-03  3.64625617e-03]]
dense/kernel:0
(100, 1)
[[ 0.22460881]
 [-0.15536043]
 [-0.16518961]
 [ 0.05992638]
 [ 0.15529606]
 [ 0.15094908]
 [-0.12979198]
 [ 0.18684548]
 [ 0.07030305]
 [-0.15752447]
 [ 0.12196969]
 [-0.06076192]
 [-0.11644097]
 [-0.09834501]
 [ 0.17968318]
 [-0.15172493]
 [ 0.21767145]
 [-0.210667  ]
 [ 0.05079041]
 [-0.13219243]
 [ 0.14573134]
 [ 0.07366968]
 [ 0.12589215]
 [-0.20447153]
 [-0.16695668]
 [-0.12478558]
 [-0.06111619]
 [-0.01870211]
 [ 0.02827279]
 [-0.16241522]
 [-0.21302454]
 [-0.21455571]
 [ 0.07940903]
 [-0.06631572]
 [ 0.05561766]
 [-0.13313921]
 [-0.03259933]
 [ 0.14488342]
 [ 0.11951269]
 [ 0.06017204]
 [ 0.08449984]
 [ 0.1857619 ]
 [ 0.10603836]
 [-0.17005554]
 [-0.18563098]
 [-0.05932037]
 [-0.12030594]
 [ 0.13485855]
 [ 0.13236961]
 [ 0.06886671]
 [-0.11479404]
 [-0.13582566]
 [ 0.02205899]
 [ 0.04246807]
 [ 0.15397464]
 [-0.15540926]
 [ 0.12916149]
 [ 0.0528461 ]
 [ 0.09243181]
 [-0.14736666]
 [ 0.08141916]
 [ 0.0967703 ]
 [ 0.03655096]
 [ 0.23430228]
 [ 0.22692263]
 [-0.18096851]
 [ 0.17868441]
 [ 0.2351513 ]
 [-0.0524848 ]
 [-0.09406041]
 [ 0.21882853]
 [ 0.2295357 ]
 [-0.03834259]
 [-0.08250678]
 [ 0.15576784]
 [-0.21734181]
 [ 0.09372582]
 [ 0.01541688]
 [-0.01063382]
 [ 0.00356527]
 [ 0.00189964]
 [ 0.03433724]
 [-0.02912376]
 [-0.22453806]
 [ 0.19251771]
 [-0.160843  ]
 [ 0.03069894]
 [-0.12493838]
 [-0.11848107]
 [-0.09584357]
 [-0.06246249]
 [-0.1431431 ]
 [ 0.1897807 ]
 [-0.02337454]
 [-0.1675799 ]
 [ 0.23078538]
 [-0.05196378]
 [ 0.10929026]
 [-0.04144026]
 [ 0.20252615]]
dense/bias:0
(1,)
[0.01510324]
